digraph Tree {
node [shape=box, style="filled, rounded", color="black", fontname=helvetica] ;
edge [fontname=helvetica] ;
0 [label="petal length (cm) <= 2.35\ngini = 0.64\nsamples = 66\nvalue = [50, 26, 36]\nclass = setosa", fillcolor="#fae8db"] ;
1 [label="gini = 0.0\nsamples = 24\nvalue = [50, 0, 0]\nclass = setosa", fillcolor="#e58139"] ;
0 -> 1 [labeldistance=2.5, labelangle=45, headlabel="True"] ;
2 [label="petal width (cm) <= 1.7\ngini = 0.49\nsamples = 42\nvalue = [0, 26, 36]\nclass = virginica", fillcolor="#dcc8f8"] ;
0 -> 2 [labeldistance=2.5, labelangle=-45, headlabel="False"] ;
3 [label="petal length (cm) <= 4.95\ngini = 0.13\nsamples = 20\nvalue = [0, 26, 2]\nclass = versicolor", fillcolor="#48e78b"] ;
2 -> 3 ;
4 [label="gini = 0.0\nsamples = 18\nvalue = [0, 26, 0]\nclass = versicolor", fillcolor="#39e581"] ;
3 -> 4 ;
5 [label="gini = 0.0\nsamples = 2\nvalue = [0, 0, 2]\nclass = virginica", fillcolor="#8139e5"] ;
3 -> 5 ;
6 [label="gini = 0.0\nsamples = 22\nvalue = [0, 0, 34]\nclass = virginica", fillcolor="#8139e5"] ;
2 -> 6 ;
}